#pragma once
#include <cstdarg>
namespace Eloquent {
    namespace ML {
        namespace Port {
            class SVM {
                public:
                    /**
                    * Predict class for features vector
                    */
                    int predict(float *x) {
                        float kernels[46] = { 0 };
                        float decisions[6] = { 0 };
                        int votes[4] = { 0 };
                        kernels[0] = compute_kernel(x,   758.0  , -13622.4  , 6990.0  , 650.0  , -16346.4  , 6066.0  , -138.0  , -17070.4  , 3458.0  , -1766.0  , -15794.4  , -762.0  , -4410.0  , -15930.4  , -4878.0  , -8066.0  , -15142.4  , -7530.0  , -7406.0  , -12342.4  , -15110.0  , -7510.0  , -7418.4  , -15798.0  , -6254.0  , -2050.4  , -11902.0  , -3742.0  , 5345.6  , -8298.0  , -1654.0  , 11033.6  , -4534.0  , -834.0  , 15377.6  , -934.0  , -966.0  , 18537.6  , 2438.0  , 326.0  , 21465.6  , 4194.0  , 1874.0  , 23161.6  , 2566.0  , 2506.0  , 24097.6  , 1226.0  , 3202.0  , 24257.6  , -1130.0  , 3034.0  , 22849.6  , -1798.0  , 1446.0  , 21861.6  , -1630.0  , 1338.0  , 21229.6  , -938.0  , 1910.0  , 20129.6  , -270.0  , 790.0  , 18833.6  , -170.0  , 2058.0  , 17401.6  , -1574.0  , 1466.0  , 15809.6  , -2354.0  , -82.0  , 14017.6  , -2554.0  , -1098.0  , 12365.6  , -2930.0  , -2122.0  , 11525.6  , -3142.0  , -2846.0  , 10261.6  , -2242.0  , -2530.0  , 8873.6  , -882.0  , -2286.0  , 7653.6  , 18.0 );
                        kernels[1] = compute_kernel(x,   -5314.0  , -11842.4  , -3858.0  , -6110.0  , -10462.4  , -4994.0  , -5054.0  , -8526.4  , -5462.0  , -4202.0  , -4834.4  , -5090.0  , -3610.0  , -406.4  , -4330.0  , -1726.0  , 4285.6  , -3134.0  , -982.0  , 7453.6  , -754.0  , -1086.0  , 10365.6  , 74.0  , -1402.0  , 12413.6  , -1098.0  , -974.0  , 14413.6  , -2538.0  , -238.0  , 17781.6  , -4730.0  , 1154.0  , 21229.6  , -4614.0  , 3118.0  , 21081.6  , -1274.0  , 4250.0  , 21133.6  , 1754.0  , 3758.0  , 20293.6  , 5666.0  , 1998.0  , 19221.6  , 7150.0  , 1134.0  , 18473.6  , 7078.0  , 1834.0  , 16765.6  , 1666.0  , 1194.0  , 14169.6  , -678.0  , 518.0  , 13049.6  , -2966.0  , 754.0  , 11725.6  , -4250.0  , 494.0  , 11005.6  , -4006.0  , 98.0  , 10573.6  , -3078.0  , 86.0  , 10229.6  , -1782.0  , 394.0  , 9497.6  , 10.0  , 298.0  , 8381.6  , 1074.0  , -138.0  , 7193.6  , 1666.0  , -230.0  , 6041.6  , 966.0  , -182.0  , 5109.6  , -14.0  , -490.0  , 4713.6  , -350.0 );
                        kernels[2] = compute_kernel(x,   470.0  , 20149.6  , 378.0  , 214.0  , 21097.6  , 1050.0  , 998.0  , 20813.6  , 2130.0  , 1886.0  , 19721.6  , 2726.0  , 2310.0  , 18413.6  , 3098.0  , 2298.0  , 16621.6  , 2858.0  , 1506.0  , 14037.6  , 2230.0  , 246.0  , 12265.6  , 886.0  , -702.0  , 11161.6  , -746.0  , -1466.0  , 9517.6  , -1510.0  , -1686.0  , 7789.6  , -2778.0  , -1354.0  , 8241.6  , -2702.0  , -942.0  , 8425.6  , -2462.0  , -202.0  , 7781.6  , -874.0  , 374.0  , 6777.6  , 334.0  , 922.0  , 5733.6  , 874.0  , 590.0  , 4785.6  , 782.0  , -94.0  , 3725.6  , 406.0  , -458.0  , 3345.6  , -198.0  , -1218.0  , 2697.6  , -394.0  , -1374.0  , 2429.6  , -362.0  , -1242.0  , 1977.6  , -322.0  , -830.0  , 1225.6  , -106.0  , -670.0  , 1073.6  , -162.0  , -210.0  , 713.6  , -354.0  , 178.0  , 645.6  , -754.0  , -346.0  , 829.6  , -766.0  , -742.0  , 689.6  , -870.0  , -1374.0  , 633.6  , -622.0  , -1610.0  , 713.6  , -722.0 );
                        kernels[3] = compute_kernel(x,   374.0  , 18745.6  , -1522.0  , 2670.0  , 18717.6  , 714.0  , 2054.0  , 17713.6  , 2970.0  , 2602.0  , 17021.6  , 3806.0  , 1922.0  , 16705.6  , 3214.0  , 1054.0  , 15829.6  , 2074.0  , -742.0  , 17513.6  , 1910.0  , -658.0  , 12453.6  , -406.0  , -298.0  , 10821.6  , -1846.0  , -926.0  , 9561.6  , -2102.0  , -1642.0  , 8809.6  , -1890.0  , -1586.0  , 8541.6  , -1742.0  , -738.0  , 8789.6  , -1718.0  , -426.0  , 8105.6  , -870.0  , -190.0  , 7565.6  , -158.0  , 450.0  , 6741.6  , 6.0  , 402.0  , 6065.6  , 206.0  , 434.0  , 5621.6  , -358.0  , 38.0  , 4637.6  , -222.0  , -274.0  , 4121.6  , -294.0  , -622.0  , 3469.6  , -26.0  , -1366.0  , 3129.6  , 126.0  , -1938.0  , 3221.6  , 482.0  , -1742.0  , 2681.6  , 150.0  , -998.0  , 2777.6  , 50.0  , -526.0  , 2769.6  , -2.0  , -662.0  , 2857.6  , 266.0  , -362.0  , 3425.6  , 138.0  , -470.0  , 3197.6  , 202.0  , -666.0  , 3725.6  , -310.0 );
                        kernels[4] = compute_kernel(x,   -5738.0  , -9710.4  , -4842.0  , -5446.0  , -7278.4  , -6526.0  , -4886.0  , -4074.4  , -7778.0  , -2078.0  , 1277.6  , -10710.0  , -2982.0  , 5089.6  , -7738.0  , -4002.0  , 7861.6  , -4574.0  , -3574.0  , 11093.6  , -3698.0  , -2214.0  , 15093.6  , -4214.0  , -338.0  , 18885.6  , -3546.0  , 2806.0  , 21549.6  , -2170.0  , 5098.0  , 23345.6  , 1810.0  , 5730.0  , 22789.6  , 6374.0  , 5638.0  , 21797.6  , 6186.0  , 2346.0  , 19173.6  , 12162.0  , 1586.0  , 17553.6  , 8178.0  , 866.0  , 14873.6  , 4062.0  , 942.0  , 12357.6  , 614.0  , 466.0  , 10073.6  , -2354.0  , 142.0  , 8433.6  , -4514.0  , -74.0  , 7221.6  , -4698.0  , -230.0  , 7053.6  , -3906.0  , -46.0  , 6605.6  , -1958.0  , 190.0  , 6069.6  , -214.0  , 458.0  , 5297.6  , 1114.0  , 406.0  , 4721.6  , 982.0  , 78.0  , 3673.6  , 430.0  , -578.0  , 2873.6  , 162.0  , -1050.0  , 2845.6  , -510.0  , -1818.0  , 2789.6  , -498.0  , -1990.0  , 3309.6  , -50.0 );
                        kernels[5] = compute_kernel(x,   -1186.0  , 15057.6  , -7658.0  , -862.0  , 17189.6  , -6562.0  , -614.0  , 19313.6  , -3602.0  , -90.0  , 23333.6  , -3210.0  , 1162.0  , 26949.6  , -3222.0  , 1782.0  , 26349.6  , -174.0  , 1482.0  , 23677.6  , 4030.0  , 1066.0  , 20949.6  , 6506.0  , 1026.0  , 18277.6  , 4298.0  , 22.0  , 15977.6  , 1198.0  , -1422.0  , 13993.6  , -982.0  , -2174.0  , 11981.6  , -2602.0  , -2354.0  , 10913.6  , -3270.0  , -1462.0  , 9989.6  , -4694.0  , -1430.0  , 9773.6  , -4242.0  , -1046.0  , 8717.6  , -1934.0  , -222.0  , 7445.6  , -602.0  , -478.0  , 6229.6  , 614.0  , -2106.0  , 5609.6  , 1754.0  , -2562.0  , 4589.6  , 1246.0  , -2394.0  , 3665.6  , 350.0  , -1730.0  , 2921.6  , -918.0  , -1674.0  , 2445.6  , -1186.0  , -1578.0  , 2537.6  , -1010.0  , -1614.0  , 2809.6  , -466.0  , -1910.0  , 3185.6  , 162.0  , -2162.0  , 3409.6  , 258.0  , -2506.0  , 3817.6  , -170.0  , -1754.0  , 3157.6  , -1202.0  , -1302.0  , 2461.6  , -1310.0 );
                        kernels[6] = compute_kernel(x,   -2938.0  , -7886.4  , 11010.0  , -3250.0  , -13298.4  , 10914.0  , -4846.0  , -14122.4  , 7490.0  , -6106.0  , -15926.4  , 4850.0  , -6582.0  , -18610.4  , 4934.0  , -7846.0  , -20946.4  , 4786.0  , -8410.0  , -19714.4  , 4022.0  , -7614.0  , -16742.4  , 2498.0  , -5974.0  , -12094.4  , -794.0  , -4098.0  , -7318.4  , -1926.0  , -1934.0  , -1866.4  , -4306.0  , -114.0  , 6485.6  , -7422.0  , -38.0  , 16469.6  , -11102.0  , -5290.0  , 23337.6  , -11170.0  , -8798.0  , 29713.6  , -10634.0  , -6218.0  , 34992.6  , -12130.0  , -1890.0  , 34992.6  , -7694.0  , 6038.0  , 34992.6  , -3410.0  , 12294.0  , 34992.6  , 3034.0  , 14370.0  , 34992.6  , 7842.0  , 10614.0  , 28681.6  , 5286.0  , 5350.0  , 25177.6  , 794.0  , 314.0  , 19817.6  , -5362.0  , -5006.0  , 14949.6  , -9494.0  , -6286.0  , 12145.6  , -14434.0  , -5834.0  , 9045.6  , -14682.0  , -4178.0  , 9201.6  , -13050.0  , -2546.0  , 9005.6  , -8798.0  , -1342.0  , 10469.6  , -4998.0  , -1722.0  , 11013.6  , -1058.0 );
                        kernels[7] = compute_kernel(x,   -15733.6  , 2256.0  , -6306.0  , -18161.6  , 2412.0  , -4662.0  , -19457.6  , 2964.0  , -1298.0  , -19273.6  , 3716.0  , 774.0  , -18341.6  , 4188.0  , 2606.0  , -16701.6  , 4804.0  , 2938.0  , -15289.6  , 5296.0  , 2542.0  , -13677.6  , 5920.0  , 1806.0  , -11981.6  , 6376.0  , 570.0  , -10833.6  , 6544.0  , -182.0  , -9777.6  , 6856.0  , -386.0  , -8997.6  , 7168.0  , -838.0  , -7341.6  , 7584.0  , -1562.0  , -7541.6  , 6232.0  , -2182.0  , -6265.6  , 6084.0  , -2878.0  , -5405.6  , 5252.0  , -3822.0  , -4101.6  , 4924.0  , -4294.0  , -2713.6  , 4572.0  , -4602.0  , -2209.6  , 4112.0  , -3886.0  , -1845.6  , 3380.0  , -2590.0  , -1501.6  , 2936.0  , -2846.0  , -597.6  , 2472.0  , -2662.0  , 26.4  , 2096.0  , -2730.0  , 826.4  , 1768.0  , -3358.0  , 1646.4  , 1416.0  , -3862.0  , 1506.4  , 880.0  , -3470.0  , 2222.4  , 1016.0  , -3950.0  , 2950.4  , 908.0  , -3954.0  , 3778.4  , 1408.0  , -3306.0  , 3966.4  , 1848.0  , -1482.0 );
                        kernels[8] = compute_kernel(x,   15250.4  , 6260.0  , -1918.0  , 16054.4  , 7204.0  , -2258.0  , 16742.4  , 7372.0  , -2122.0  , 15286.4  , 7048.0  , -1714.0  , 12346.4  , 6456.0  , -870.0  , 7998.4  , 6184.0  , -282.0  , 4802.4  , 5320.0  , -430.0  , 2726.4  , 5400.0  , -742.0  , 78.4  , 5696.0  , -1058.0  , -2441.6  , 6404.0  , -318.0  , -5041.6  , 7168.0  , 310.0  , -6641.6  , 6764.0  , 1154.0  , -7265.6  , 6432.0  , 1618.0  , -7373.6  , 6760.0  , 1990.0  , -7409.6  , 6884.0  , 1682.0  , -8057.6  , 6920.0  , 1230.0  , -9337.6  , 6352.0  , 786.0  , -10145.6  , 5660.0  , 230.0  , -10609.6  , 5188.0  , -658.0  , -10765.6  , 4848.0  , -962.0  , -10673.6  , 4648.0  , -934.0  , -10309.6  , 3284.0  , -1054.0  , -10445.6  , 4096.0  , -1266.0  , -10753.6  , 4212.0  , -230.0  , -10361.6  , 3060.0  , -850.0  , -9161.6  , 3344.0  , -1570.0  , -9237.6  , 3284.0  , -1158.0  , -8389.6  , 3664.0  , -790.0  , -7605.6  , 4084.0  , -282.0  , -6829.6  , 3836.0  , 354.0 );
                        kernels[9] = compute_kernel(x,   -14133.6  , 6972.0  , 890.0  , -13457.6  , 3144.0  , 1654.0  , -12429.6  , 3268.0  , 1354.0  , -10961.6  , 3012.0  , 454.0  , -9289.6  , 3836.0  , -462.0  , -7553.6  , 4336.0  , -694.0  , -5657.6  , 4668.0  , -26.0  , -4321.6  , 5316.0  , 42.0  , -2441.6  , 5480.0  , -22.0  , -349.6  , 5492.0  , -762.0  , 970.4  , 5308.0  , -1078.0  , 2030.4  , 5416.0  , -1122.0  , 1962.4  , 5672.0  , -1178.0  , 1738.4  , 5284.0  , -770.0  , 2330.4  , 4592.0  , -790.0  , 3742.4  , 4556.0  , -962.0  , 4398.4  , 5228.0  , -1186.0  , 5342.4  , 5252.0  , -1470.0  , 6126.4  , 5636.0  , -1322.0  , 6606.4  , 5444.0  , -710.0  , 6662.4  , 5884.0  , -378.0  , 6174.4  , 5140.0  , 730.0  , 6590.4  , 5972.0  , 526.0  , 7214.4  , 5536.0  , 718.0  , 6806.4  , 5880.0  , 154.0  , 6354.4  , 5724.0  , -42.0  , 5622.4  , 5388.0  , 30.0  , 5234.4  , 5044.0  , -226.0  , 5326.4  , 4992.0  , -806.0  , 5422.4  , 5072.0  , -770.0 );
                        kernels[10] = compute_kernel(x,   14642.4  , 6580.0  , 958.0  , 16450.4  , 7280.0  , 354.0  , 17882.4  , 7888.0  , -250.0  , 20406.4  , 9412.0  , -2410.0  , 21678.4  , 9444.0  , -2670.0  , 23014.4  , 10976.0  , -4874.0  , 22486.4  , 10608.0  , -5786.0  , 19862.4  , 10680.0  , -7178.0  , 13430.4  , 10568.0  , -3974.0  , 8558.4  , 9976.0  , -2314.0  , 3654.4  , 9124.0  , -1522.0  , -657.6  , 8760.0  , -1014.0  , -4805.6  , 8920.0  , -506.0  , -7357.6  , 8856.0  , 598.0  , -9253.6  , 8312.0  , 1186.0  , -10381.6  , 8492.0  , 2622.0  , -12169.6  , 8248.0  , 3026.0  , -14289.6  , 6888.0  , 3522.0  , -16969.6  , 6944.0  , 3662.0  , -18277.6  , 5740.0  , 3438.0  , -18701.6  , -3508.0  , 2166.0  , -18493.6  , 10816.0  , 986.0  , -22089.6  , 4036.0  , 454.0  , -21565.6  , 1676.0  , 3434.0  , -19937.6  , 1792.0  , 1262.0  , -18813.6  , 2384.0  , 506.0  , -16925.6  , 2116.0  , 670.0  , -15057.6  , 2600.0  , 170.0  , -12961.6  , 2984.0  , -554.0  , -10533.6  , 3364.0  , -1458.0 );
                        kernels[11] = compute_kernel(x,   -12645.6  , 5276.0  , -4554.0  , -10173.6  , 7016.0  , -3750.0  , -9133.6  , 7624.0  , -2402.0  , -7933.6  , 8092.0  , -1546.0  , -6201.6  , 8504.0  , -1154.0  , -4837.6  , 8120.0  , -954.0  , -4445.6  , 7708.0  , -278.0  , -3069.6  , 7348.0  , -466.0  , -1577.6  , 6972.0  , -910.0  , -197.6  , 6604.0  , -450.0  , 1426.4  , 6660.0  , -206.0  , 3042.4  , 6892.0  , -166.0  , 3442.4  , 7332.0  , 42.0  , 4374.4  , 7056.0  , 590.0  , 4266.4  , 6644.0  , 970.0  , 4330.4  , 6372.0  , 1286.0  , 4546.4  , 6588.0  , 662.0  , 4762.4  , 6604.0  , 510.0  , 3158.4  , 5336.0  , 1982.0  , 2674.4  , 9768.0  , 1650.0  , 4046.4  , 5056.0  , 1206.0  , 4146.4  , 5348.0  , 98.0  , 3898.4  , 5448.0  , 210.0  , 4114.4  , 5556.0  , -342.0  , 3986.4  , 5564.0  , -346.0  , 3490.4  , 6448.0  , 198.0  , 3246.4  , 6276.0  , 202.0  , 3006.4  , 6260.0  , 378.0  , 3214.4  , 6296.0  , 314.0  , 3426.4  , 6396.0  , -26.0 );
                        kernels[12] = compute_kernel(x,   14150.4  , 5160.0  , -1778.0  , 16002.4  , 7128.0  , -3158.0  , 14854.4  , 7548.0  , -1086.0  , 11758.4  , 8352.0  , 1566.0  , 8574.4  , 8316.0  , 2606.0  , 6894.4  , 7916.0  , 1782.0  , 5758.4  , 6224.0  , 642.0  , 4522.4  , 6320.0  , -906.0  , 3090.4  , 6696.0  , -1574.0  , 1130.4  , 6912.0  , -1190.0  , -1013.6  , 6864.0  , -422.0  , -2573.6  , 5808.0  , -670.0  , -3957.6  , 5244.0  , -1346.0  , -4733.6  , 4920.0  , -2390.0  , -5249.6  , 4824.0  , -3226.0  , -5721.6  , 5048.0  , -3554.0  , -6169.6  , 5068.0  , -3166.0  , -7561.6  , 5384.0  , -2058.0  , -8973.6  , 5332.0  , -1550.0  , -10329.6  , 5100.0  , -1574.0  , -12173.6  , 4816.0  , -1490.0  , -13381.6  , 4344.0  , -1602.0  , -13973.6  , 3792.0  , -1546.0  , -14233.6  , 2140.0  , -1186.0  , -14413.6  , 6260.0  , -386.0  , -12717.6  , 3768.0  , 98.0  , -12449.6  , 3948.0  , 974.0  , -10945.6  , 4676.0  , 410.0  , -10685.6  , 5400.0  , 218.0  , -9733.6  , 5116.0  , 470.0 );
                        kernels[13] = compute_kernel(x,   9970.4  , 7652.0  , 3286.0  , 9546.4  , 7468.0  , 4582.0  , 8942.4  , 7040.0  , 3626.0  , 7562.4  , 5140.0  , 3222.0  , 6858.4  , 4940.0  , 726.0  , 7358.4  , 4104.0  , -762.0  , 8014.4  , 4272.0  , -2374.0  , 9278.4  , 4156.0  , -3486.0  , 10594.4  , 5316.0  , -4878.0  , 11026.4  , 6000.0  , -5202.0  , 11050.4  , 8196.0  , -6146.0  , 10590.4  , 7948.0  , -7170.0  , 6594.4  , 7260.0  , -5794.0  , 1286.4  , 6764.0  , -4310.0  , -4041.6  , 6028.0  , -2970.0  , -8593.6  , 4360.0  , -1966.0  , -13253.6  , 3596.0  , -646.0  , -13245.6  , 2488.0  , -1066.0  , -14401.6  , 2172.0  , -238.0  , -15605.6  , 2400.0  , 1938.0  , -14585.6  , 2928.0  , 2606.0  , -14529.6  , 3588.0  , 2726.0  , -14629.6  , 3920.0  , 2830.0  , -14145.6  , 5372.0  , 2386.0  , -13365.6  , 7688.0  , 1210.0  , -11385.6  , 3988.0  , 702.0  , -11097.6  , 4060.0  , 254.0  , -10209.6  , 5112.0  , 2.0  , -9841.6  , 5564.0  , 22.0  , -8625.6  , 5464.0  , 710.0 );
                        kernels[14] = compute_kernel(x,   13266.4  , 6988.0  , -650.0  , 15382.4  , 7308.0  , -926.0  , 14618.4  , 5940.0  , 182.0  , 13934.4  , 7856.0  , 1462.0  , 11810.4  , 8836.0  , 2482.0  , 8790.4  , 8804.0  , 3434.0  , 6934.4  , 8144.0  , 3202.0  , 4322.4  , 7244.0  , 3302.0  , 2642.4  , 7096.0  , 1946.0  , 1690.4  , 7156.0  , 1226.0  , 518.4  , 7312.0  , 606.0  , -521.6  , 7268.0  , 290.0  , -1717.6  , 7544.0  , -110.0  , -2873.6  , 7652.0  , -602.0  , -4717.6  , 7540.0  , -730.0  , -6261.6  , 7656.0  , -966.0  , -7665.6  , 7204.0  , -1542.0  , -9085.6  , 6640.0  , -1794.0  , -10129.6  , 6272.0  , -2050.0  , -10869.6  , 6048.0  , -2554.0  , -11373.6  , 5512.0  , -2570.0  , -11849.6  , 4988.0  , -3186.0  , -11945.6  , 4396.0  , -3302.0  , -11373.6  , -748.0  , -4702.0  , -11797.6  , 4040.0  , -5394.0  , -12837.6  , 3764.0  , -2578.0  , -12241.6  , 3440.0  , -2958.0  , -11833.6  , 4348.0  , -2050.0  , -11489.6  , 4244.0  , -1138.0  , -10861.6  , 4708.0  , -526.0 );
                        kernels[15] = compute_kernel(x,   15146.4  , 5552.0  , -1870.0  , 19066.4  , 7564.0  , -182.0  , 21746.4  , 9688.0  , 1198.0  , 23338.4  , 11524.0  , 1094.0  , 22762.4  , 12388.0  , 366.0  , 20934.4  , 11756.0  , -1350.0  , 16742.4  , 10580.0  , -2270.0  , 11454.4  , 8992.0  , -1894.0  , 5574.4  , 7780.0  , -1586.0  , 366.4  , 6020.0  , -1506.0  , -3837.6  , 4552.0  , -1158.0  , -7353.6  , 4112.0  , -1338.0  , -8969.6  , 2992.0  , -1066.0  , -10725.6  , 3088.0  , -406.0  , -11501.6  , 3576.0  , -222.0  , -11261.6  , 4380.0  , -366.0  , -11197.6  , 5020.0  , -486.0  , -10925.6  , 5432.0  , -994.0  , -10893.6  , 5680.0  , -1370.0  , -10949.6  , 5852.0  , -1414.0  , -10785.6  , 5732.0  , -1570.0  , -10617.6  , 5820.0  , -1590.0  , -10505.6  , 5516.0  , -1870.0  , -10573.6  , 5352.0  , -1946.0  , -11489.6  , 7784.0  , -1282.0  , -10809.6  , 4352.0  , -1882.0  , -11413.6  , 4888.0  , -2094.0  , -10633.6  , 3832.0  , -1626.0  , -9973.6  , 4100.0  , -1570.0  , -9201.6  , 4076.0  , -618.0 );
                        kernels[16] = compute_kernel(x,   15334.4  , 6792.0  , -518.0  , 16446.4  , 8196.0  , 290.0  , 16922.4  , 9244.0  , 582.0  , 16298.4  , 10024.0  , 26.0  , 14646.4  , 10088.0  , -766.0  , 12102.4  , 9532.0  , -1118.0  , 8958.4  , 8652.0  , -1366.0  , 6178.4  , 8352.0  , -2534.0  , 2830.4  , 7520.0  , -2354.0  , 90.4  , 7460.0  , -2506.0  , -1857.6  , 7252.0  , -2762.0  , -3701.6  , 7480.0  , -2546.0  , -5017.6  , 7784.0  , -1922.0  , -6257.6  , 8128.0  , -1102.0  , -7393.6  , 7948.0  , -314.0  , -7141.6  , 8108.0  , -606.0  , -7757.6  , 7876.0  , -746.0  , -8221.6  , 7684.0  , -862.0  , -9489.6  , 7140.0  , -650.0  , -9781.6  , 6536.0  , -1046.0  , -10313.6  , 5892.0  , -1246.0  , -9733.6  , 5188.0  , -1310.0  , -9261.6  , 5000.0  , -1998.0  , -8817.6  , 3080.0  , -1670.0  , -8397.6  , 5884.0  , -1538.0  , -8061.6  , 4720.0  , -430.0  , -8133.6  , 5112.0  , -186.0  , -7941.6  , 5392.0  , -82.0  , -7625.6  , 5464.0  , -70.0  , -7113.6  , 5416.0  , -306.0 );
                        kernels[17] = compute_kernel(x,   -12873.6  , 4380.0  , -4542.0  , -13745.6  , 4036.0  , -5486.0  , -14317.6  , 3640.0  , -7002.0  , -14761.6  , 3176.0  , -8098.0  , -14669.6  , 3196.0  , -8350.0  , -15293.6  , 3560.0  , -7466.0  , -16157.6  , 4132.0  , -6422.0  , -16685.6  , 4368.0  , -5218.0  , -17917.6  , 4728.0  , -4494.0  , -17249.6  , 5128.0  , -3938.0  , -16733.6  , 5724.0  , -3626.0  , -15969.6  , 6408.0  , -3450.0  , -15369.6  , 7124.0  , -2974.0  , -14405.6  , 7392.0  , -2830.0  , -13133.6  , 7608.0  , -3410.0  , -11205.6  , 8064.0  , -3038.0  , -9845.6  , 8136.0  , -2374.0  , -8589.6  , 7516.0  , -2246.0  , -7489.6  , 6480.0  , -2870.0  , -7093.6  , 5748.0  , -4002.0  , -6545.6  , 4324.0  , -4646.0  , -5037.6  , 2996.0  , -6386.0  , -2281.6  , 2112.0  , -8674.0  , 1262.4  , 1632.0  , -8634.0  , 3574.4  , 1436.0  , -7466.0  , 4558.4  , 1512.0  , -6146.0  , 5426.4  , 1376.0  , -4630.0  , 5750.4  , 1176.0  , -3418.0  , 5094.4  , 1776.0  , -2942.0  , 4714.4  , 1784.0  , -1974.0 );
                        kernels[18] = compute_kernel(x,   18198.4  , 2952.0  , -1134.0  , 20530.4  , 4232.0  , -1790.0  , 22130.4  , 5320.0  , -1074.0  , 23482.4  , 6808.0  , -202.0  , 22314.4  , 8808.0  , 166.0  , 20102.4  , 9892.0  , 842.0  , 16614.4  , 10596.0  , 1086.0  , 13106.4  , 10620.0  , -454.0  , 9334.4  , 9532.0  , -1422.0  , 5126.4  , 8476.0  , -2402.0  , 1166.4  , 7048.0  , -3126.0  , -3053.6  , 6208.0  , -2758.0  , -6897.6  , 6368.0  , -2174.0  , -8977.6  , 6280.0  , -1342.0  , -9961.6  , 6312.0  , -322.0  , -10625.6  , 6364.0  , 1554.0  , -10489.6  , 6960.0  , 2210.0  , -10249.6  , 6888.0  , 1970.0  , -10513.6  , 6856.0  , 1558.0  , -10937.6  , 6620.0  , 482.0  , -11229.6  , 6468.0  , -158.0  , -10977.6  , 6076.0  , -1550.0  , -10901.6  , 5020.0  , -1150.0  , -11037.6  , 6588.0  , -2074.0  , -9845.6  , 5444.0  , -330.0  , -9001.6  , 5328.0  , -230.0  , -8921.6  , 6028.0  , -638.0  , -8353.6  , 5644.0  , 26.0  , -7573.6  , 5200.0  , -274.0  , -6601.6  , 5332.0  , -410.0 );
                        kernels[19] = compute_kernel(x,   -8781.6  , -1740.0  , 3590.0  , -805.6  , -1180.0  , -1362.0  , -869.6  , -396.0  , -2042.0  , -1225.6  , -592.0  , -1130.0  , -1417.6  , -436.0  , -714.0  , -1317.6  , -444.0  , -954.0  , -1185.6  , -400.0  , -866.0  , -1293.6  , -352.0  , -382.0  , -1293.6  , -444.0  , 154.0  , -993.6  , -520.0  , 982.0  , -1525.6  , -436.0  , 1778.0  , -2413.6  , -148.0  , 1906.0  , -1965.6  , 916.0  , -2110.0  , 2674.4  , -664.0  , -9218.0  , 1426.4  , -2196.0  , -1186.0  , -2249.6  , 564.0  , 658.0  , -29.6  , -360.0  , -434.0  , -481.6  , -468.0  , -522.0  , -941.6  , -392.0  , -198.0  , -1125.6  , -584.0  , -222.0  , -1081.6  , -832.0  , -34.0  , -1029.6  , -680.0  , -282.0  , -1169.6  , -920.0  , 74.0  , -1349.6  , -936.0  , 318.0  , -1289.6  , -940.0  , 138.0  , -1385.6  , -1004.0  , -58.0  , -1113.6  , -816.0  , -478.0  , -969.6  , -748.0  , -782.0  , -1101.6  , -740.0  , -398.0  , -1153.6  , -732.0  , -382.0 );
                        kernels[20] = compute_kernel(x,   14994.4  , 4828.0  , -1234.0  , 15286.4  , 4068.0  , -538.0  , 15298.4  , 3336.0  , -674.0  , 15154.4  , 3004.0  , -1146.0  , 14142.4  , 2836.0  , -1430.0  , 12822.4  , 2572.0  , -1746.0  , 11086.4  , 2344.0  , -2010.0  , 9774.4  , 2100.0  , -2350.0  , 8290.4  , 1948.0  , -2394.0  , 7066.4  , 1560.0  , -2066.0  , 6222.4  , 1296.0  , -1842.0  , 4930.4  , 1052.0  , -1602.0  , 4266.4  , 1024.0  , -1782.0  , 2878.4  , 868.0  , -1450.0  , 2214.4  , 496.0  , -1166.0  , 954.4  , -292.0  , -722.0  , -445.6  , -340.0  , 170.0  , -969.6  , -1004.0  , 1218.0  , -957.6  , -1048.0  , 1746.0  , -497.6  , -492.0  , 1566.0  , 34.4  , -112.0  , 902.0  , -105.6  , -100.0  , -54.0  , -641.6  , 164.0  , -898.0  , -1241.6  , -260.0  , -1094.0  , -1745.6  , -612.0  , -1086.0  , -2093.6  , -564.0  , -722.0  , -2381.6  , -644.0  , -502.0  , -2449.6  , -776.0  , -674.0  , -2177.6  , -712.0  , -1026.0  , -2353.6  , -836.0  , -1418.0 );
                        kernels[21] = compute_kernel(x,   -1821.6  , -2548.0  , 2702.0  , 3066.4  , -9992.0  , 286.0  , 8878.4  , -7316.0  , -6874.0  , 4470.4  , -11276.0  , -2570.0  , 3922.4  , -1612.0  , -4174.0  , 2478.4  , -2000.0  , -3702.0  , 1994.4  , -2400.0  , -2450.0  , 1874.4  , -688.0  , -738.0  , 2298.4  , -224.0  , -438.0  , 1870.4  , 596.0  , 614.0  , 2206.4  , 416.0  , 566.0  , 2598.4  , 532.0  , 302.0  , 3374.4  , 464.0  , 58.0  , 2258.4  , 780.0  , 746.0  , 2094.4  , 888.0  , 1090.0  , 1906.4  , 524.0  , 1090.0  , 978.4  , 480.0  , 1554.0  , 1902.4  , 120.0  , -694.0  , 1710.4  , 556.0  , -746.0  , 1650.4  , 248.0  , -1294.0  , 838.4  , 284.0  , -262.0  , 1358.4  , 1048.0  , -1798.0  , -1337.6  , 1096.0  , -566.0  , -1357.6  , 308.0  , -654.0  , -5317.6  , -412.0  , -482.0  , -11413.6  , 1556.0  , 1766.0  , -14005.6  , 2172.0  , 1758.0  , -15845.6  , 2228.0  , 1158.0  , -16977.6  , 2260.0  , 282.0  , -18057.6  , 2388.0  , 174.0 );
                        kernels[22] = compute_kernel(x,   -8293.6  , 6120.0  , 7790.0  , -5281.6  , 8792.0  , 9310.0  , -5173.6  , 9652.0  , 9834.0  , -6965.6  , 9976.0  , 9250.0  , -7781.6  , 9816.0  , 4550.0  , -7497.6  , 7452.0  , -170.0  , -4681.6  , 4276.0  , -3706.0  , -561.6  , 1824.0  , -6670.0  , 4398.4  , 764.0  , -8194.0  , 8418.4  , 136.0  , -9382.0  , 10050.4  , 1544.0  , -8294.0  , 12638.4  , 2780.0  , -8006.0  , 13350.4  , 4320.0  , -10086.0  , 14066.4  , 4088.0  , -12506.0  , 15922.4  , 1508.0  , -19066.0  , 18002.4  , 16.0  , -24978.0  , 18426.4  , -2528.0  , -26734.0  , 18514.4  , -3080.0  , -26274.0  , 19930.4  , -2900.0  , -26498.0  , 19774.4  , -2728.0  , -25702.0  , 19770.4  , -2912.0  , -27218.0  , 19290.4  , -3224.0  , -28238.0  , 20522.4  , -3508.0  , -29930.0  , 19702.4  , -4432.0  , -30982.0  , 20494.4  , -4708.0  , -31450.0  , 20830.4  , -4252.0  , -31042.0  , 19610.4  , -3680.0  , -28802.0  , 19698.4  , -3728.0  , -26966.0  , 19366.4  , -3264.0  , -24606.0  , 18330.4  , -2028.0  , -21598.0 );
                        kernels[23] = compute_kernel(x,   -13281.6  , 7340.0  , 2250.0  , -17689.6  , 8352.0  , 2654.0  , -21061.6  , 9292.0  , 2594.0  , -23261.6  , 10208.0  , 1170.0  , -25361.6  , 9176.0  , 866.0  , -26997.6  , 9200.0  , 10.0  , -28025.6  , 9972.0  , -310.0  , -28209.6  , 9780.0  , -826.0  , -26577.6  , 10448.0  , -1418.0  , -23509.6  , 12004.0  , -2662.0  , -19241.6  , 11968.0  , -3962.0  , -13177.6  , 12592.0  , -5566.0  , -4805.6  , 14672.0  , -6738.0  , 5754.4  , 17156.0  , -6302.0  , 15862.4  , 18944.0  , -5618.0  , 24046.4  , 19076.0  , -3238.0  , 33161.4  , 17012.0  , -434.0  , 33161.4  , 13444.0  , 1034.0  , 33161.4  , 11528.0  , 5814.0  , 33161.4  , 10180.0  , 5902.0  , 33161.4  , 5236.0  , 2858.0  , 27886.4  , 1848.0  , 558.0  , 22206.4  , 88.0  , -1618.0  , 15226.4  , -1888.0  , 362.0  , 12002.4  , -2248.0  , -726.0  , 9294.4  , -832.0  , -1462.0  , 7078.4  , -1408.0  , 326.0  , 5570.4  , -676.0  , 1490.0  , 5006.4  , 248.0  , 1482.0  , 3830.4  , 1012.0  , 1246.0 );
                        kernels[24] = compute_kernel(x,   -15917.6  , 6504.0  , -1098.0  , -17689.6  , 6948.0  , -990.0  , -20797.6  , 8008.0  , -1526.0  , -23165.6  , 8036.0  , -2722.0  , -24593.6  , 7612.0  , -3558.0  , -25377.6  , 6808.0  , -4798.0  , -26797.6  , 6436.0  , -5310.0  , -26717.6  , 7008.0  , -6954.0  , -21677.6  , 6304.0  , -6646.0  , -14957.6  , 5852.0  , -5694.0  , -8965.6  , 8044.0  , -5138.0  , -577.6  , 10284.0  , -4082.0  , 8714.4  , 9520.0  , -2870.0  , 14734.4  , 8760.0  , 134.0  , 17478.4  , 7292.0  , 3178.0  , 19198.4  , 6024.0  , 3822.0  , 20314.4  , 4884.0  , 3370.0  , 20774.4  , -684.0  , 806.0  , 17042.4  , 2972.0  , 1946.0  , 15846.4  , 2296.0  , 2762.0  , 14074.4  , 1924.0  , 2534.0  , 12030.4  , 972.0  , 3014.0  , 9458.4  , 436.0  , 1514.0  , 6786.4  , 68.0  , 510.0  , 4418.4  , -244.0  , -1238.0  , 1354.4  , -340.0  , -1954.0  , -1309.6  , -804.0  , -2478.0  , -3237.6  , -824.0  , -2978.0  , -3553.6  , 48.0  , -3650.0  , -2953.6  , 536.0  , -3402.0 );
                        kernels[25] = compute_kernel(x,   -15573.6  , 4504.0  , 914.0  , -16813.6  , 4356.0  , 258.0  , -15341.6  , 4188.0  , -1362.0  , -11477.6  , 4356.0  , -2234.0  , -7529.6  , 4500.0  , -2614.0  , -3681.6  , 5452.0  , -2134.0  , 1074.4  , 6760.0  , -2298.0  , 5850.4  , 8008.0  , -2286.0  , 10862.4  , 8460.0  , -1722.0  , 14986.4  , 8704.0  , -142.0  , 17162.4  , 8424.0  , 1174.0  , 17442.4  , 8140.0  , 2494.0  , 16110.4  , 7264.0  , 3858.0  , 13346.4  , 6072.0  , 3850.0  , 11982.4  , 7040.0  , 2614.0  , 9046.4  , 6144.0  , 1702.0  , 7142.4  , 3780.0  , -86.0  , 5114.4  , 2832.0  , -814.0  , 2890.4  , 2564.0  , -750.0  , 1670.4  , 2324.0  , -958.0  , 694.4  , 2416.0  , -834.0  , -853.6  , 2316.0  , -738.0  , -2433.6  , 2728.0  , -434.0  , -3585.6  , 3136.0  , -382.0  , -3885.6  , 3368.0  , -326.0  , -3785.6  , 3524.0  , -558.0  , -3445.6  , 3732.0  , -682.0  , -3009.6  , 3964.0  , -658.0  , -2289.6  , 4048.0  , -558.0  , -1781.6  , 4336.0  , -554.0 );
                        kernels[26] = compute_kernel(x,   10726.4  , 6640.0  , -3178.0  , 10990.4  , 5272.0  , 4150.0  , 19762.4  , 6944.0  , 1050.0  , 22114.4  , 7960.0  , 2390.0  , 24070.4  , 7988.0  , 2342.0  , 24654.4  , 6668.0  , 1130.0  , 23314.4  , 5332.0  , 370.0  , 21226.4  , 4380.0  , -350.0  , 19346.4  , 2664.0  , -1186.0  , 16910.4  , 1700.0  , -2970.0  , 14114.4  , 1044.0  , -3510.0  , 11066.4  , 360.0  , -3854.0  , 7510.4  , 684.0  , -2806.0  , 4866.4  , 156.0  , -2214.0  , 2418.4  , 72.0  , -1966.0  , 102.4  , 696.0  , -1610.0  , -1877.6  , 1300.0  , -994.0  , -2209.6  , 1612.0  , -518.0  , -1853.6  , 1940.0  , -522.0  , -1209.6  , 2364.0  , -454.0  , -173.6  , 2828.0  , -190.0  , 142.4  , 3276.0  , 2.0  , -477.6  , 3840.0  , 146.0  , -1525.6  , 3760.0  , 238.0  , -2405.6  , 3876.0  , 114.0  , -3025.6  , 3356.0  , 138.0  , -3305.6  , 3744.0  , 278.0  , -3285.6  , 3728.0  , -258.0  , -2825.6  , 3808.0  , -642.0  , -1901.6  , 4112.0  , -686.0 );
                        kernels[27] = compute_kernel(x,   -17089.6  , 4908.0  , 722.0  , -19197.6  , 4764.0  , 386.0  , -19261.6  , 5248.0  , -890.0  , -18469.6  , 5164.0  , -2378.0  , -16929.6  , 5116.0  , -2970.0  , -15525.6  , 5132.0  , -3410.0  , -14065.6  , 4916.0  , -3158.0  , -12273.6  , 4340.0  , -2222.0  , -10297.6  , 4748.0  , -1946.0  , -8293.6  , 5664.0  , -786.0  , -7853.6  , 5704.0  , 410.0  , -6741.6  , 5692.0  , 1066.0  , -4765.6  , 5356.0  , 1474.0  , -2037.6  , 5264.0  , 1022.0  , 1642.4  , 5672.0  , 1210.0  , 4834.4  , 5524.0  , 1106.0  , 6850.4  , 5104.0  , 966.0  , 7534.4  , 4440.0  , 970.0  , 7502.4  , 3424.0  , 982.0  , 6426.4  , 2476.0  , 630.0  , 5270.4  , 744.0  , -590.0  , 4250.4  , 352.0  , -898.0  , 4954.4  , 88.0  , -2438.0  , 6486.4  , 20.0  , -2502.0  , 7142.4  , 272.0  , -1242.0  , 7990.4  , 584.0  , -922.0  , 8486.4  , 1064.0  , -1098.0  , 8514.4  , 1240.0  , -934.0  , 7806.4  , 1664.0  , -1298.0  , 6854.4  , 1748.0  , -2006.0 );
                        kernels[28] = compute_kernel(x,   -13817.6  , 5080.0  , -2178.0  , -16181.6  , 5548.0  , -1394.0  , -16489.6  , 5100.0  , -1842.0  , -16901.6  , 4904.0  , -2602.0  , -16765.6  , 4740.0  , -3450.0  , -15965.6  , 4952.0  , -4518.0  , -14989.6  , 5136.0  , -5358.0  , -13525.6  , 5568.0  , -5710.0  , -11973.6  , 5816.0  , -4562.0  , -9825.6  , 5772.0  , -3534.0  , -6553.6  , 6844.0  , -1958.0  , -2869.6  , 8532.0  , -198.0  , 862.4  , 10164.0  , 1610.0  , 4198.4  , 11732.0  , 3298.0  , 7642.4  , 12796.0  , 4058.0  , 9738.4  , 11612.0  , 4242.0  , 10110.4  , 10988.0  , 3854.0  , 11850.4  , 12752.0  , 3210.0  , 11062.4  , 6640.0  , 2890.0  , 10702.4  , 5324.0  , 1498.0  , 11270.4  , 4440.0  , 58.0  , 11086.4  , 2980.0  , 54.0  , 12022.4  , 2300.0  , 342.0  , 12958.4  , 2332.0  , 862.0  , 12742.4  , 2708.0  , 2110.0  , 11906.4  , 2352.0  , 1966.0  , 10998.4  , 2556.0  , 1638.0  , 10078.4  , 2116.0  , 670.0  , 8778.4  , 2268.0  , -770.0  , 7722.4  , 1796.0  , -1378.0 );
                        kernels[29] = compute_kernel(x,   -15025.6  , 7436.0  , -1294.0  , -19189.6  , 8352.0  , -850.0  , -19921.6  , 7964.0  , -2022.0  , -19201.6  , 6828.0  , -3406.0  , -19221.6  , 6364.0  , -3570.0  , -19293.6  , 6652.0  , -3454.0  , -19321.6  , 6476.0  , -2858.0  , -18025.6  , 6864.0  , -3258.0  , -16513.6  , 6804.0  , -3434.0  , -14665.6  , 6596.0  , -4098.0  , -12257.6  , 5580.0  , -4318.0  , -9605.6  , 4312.0  , -3734.0  , -7137.6  , 4696.0  , -3374.0  , -3041.6  , 6112.0  , -3498.0  , 1222.4  , 8504.0  , -3018.0  , 9418.4  , 10316.0  , -3414.0  , 15306.4  , 8552.0  , -3014.0  , 21666.4  , 10492.0  , -406.0  , 23442.4  , 12320.0  , 2946.0  , 24818.4  , 11868.0  , 5614.0  , 22582.4  , 8520.0  , 7222.0  , 19514.4  , 7928.0  , 9014.0  , 18270.4  , 5932.0  , 8542.0  , 17254.4  , 4172.0  , 6354.0  , 16310.4  , 3208.0  , 3950.0  , 15934.4  , 2252.0  , 1490.0  , 14570.4  , 1620.0  , -142.0  , 12642.4  , 1472.0  , -1626.0  , 10558.4  , 2140.0  , -2438.0  , 8782.4  , 1700.0  , -2930.0 );
                        kernels[30] = compute_kernel(x,   502.4  , 9664.0  , 11722.0  , 554.4  , 9916.0  , 12470.0  , 418.4  , 10460.0  , 11318.0  , 738.4  , 9940.0  , 9194.0  , 1118.4  , 9688.0  , 7166.0  , 1202.4  , 8028.0  , 5334.0  , 1122.4  , 7536.0  , 3950.0  , 1506.4  , 7324.0  , 3330.0  , 934.4  , 6716.0  , 3998.0  , 318.4  , 6828.0  , 2418.0  , 214.4  , 5756.0  , 882.0  , -269.6  , 5292.0  , -874.0  , -393.6  , 3748.0  , -2974.0  , -969.6  , 3120.0  , -5058.0  , -1269.6  , 1612.0  , -6662.0  , -1413.6  , 340.0  , -8274.0  , -1989.6  , -1196.0  , -9158.0  , -2113.6  , -3200.0  , -11018.0  , -1965.6  , -4564.0  , -12534.0  , -2169.6  , -6288.0  , -13258.0  , -2409.6  , -7572.0  , -13654.0  , -1629.6  , -8848.0  , -14782.0  , -2941.6  , -9324.0  , -14218.0  , -2501.6  , -9840.0  , -13954.0  , -1913.6  , -9840.0  , -13934.0  , -1357.6  , -10028.0  , -13946.0  , -957.6  , -10312.0  , -13462.0  , -681.6  , -9772.0  , -13134.0  , -85.6  , -9856.0  , -12274.0  , 110.4  , -10024.0  , -12190.0 );
                        kernels[31] = compute_kernel(x,   -897.6  , -8056.0  , -12514.0  , -709.6  , -7508.0  , -9770.0  , -449.6  , -5820.0  , -6870.0  , -361.6  , -4460.0  , -2982.0  , -489.6  , -3004.0  , 346.0  , -469.6  , -1300.0  , 3654.0  , -177.6  , -156.0  , 7278.0  , -589.6  , 440.0  , 9850.0  , -1681.6  , 824.0  , 9426.0  , -2153.6  , 596.0  , 7354.0  , -1833.6  , 252.0  , 5194.0  , -829.6  , 384.0  , 3678.0  , -201.6  , 1144.0  , 2910.0  , -425.6  , 1944.0  , 4230.0  , -229.6  , 2716.0  , 5782.0  , -505.6  , 3168.0  , 6902.0  , -913.6  , 3364.0  , 7662.0  , -857.6  , 3344.0  , 7030.0  , -401.6  , 2412.0  , 5398.0  , -157.6  , 2236.0  , 3490.0  , -117.6  , 1616.0  , 2070.0  , -81.6  , 1548.0  , 1018.0  , -381.6  , 1236.0  , 874.0  , -389.6  , 1144.0  , 1110.0  , -425.6  , 1172.0  , 1450.0  , -177.6  , 1048.0  , 1570.0  , 106.4  , 408.0  , 1242.0  , 450.4  , 320.0  , 838.0  , 838.4  , 1248.0  , -258.0  , -137.6  , 1328.0  , 578.0 );
                        kernels[32] = compute_kernel(x,   -1597.6  , -11148.0  , -13210.0  , -849.6  , -10584.0  , -12338.0  , -265.6  , -9868.0  , -11014.0  , 430.4  , -8728.0  , -9458.0  , 822.4  , -7676.0  , -7422.0  , 918.4  , -6608.0  , -5190.0  , 422.4  , -5804.0  , -3374.0  , -45.6  , -5052.0  , -2838.0  , 130.4  , -4696.0  , -1918.0  , 94.4  , -4032.0  , -738.0  , 174.4  , -3560.0  , 206.0  , 190.4  , -3168.0  , 194.0  , 266.4  , -3076.0  , -138.0  , 654.4  , -2948.0  , -178.0  , 530.4  , -2676.0  , 94.0  , 214.4  , -2288.0  , 654.0  , -293.6  , -2292.0  , 1698.0  , -809.6  , -1832.0  , 1778.0  , -1321.6  , -1552.0  , 1530.0  , -873.6  , -1276.0  , 606.0  , -321.6  , -1136.0  , 110.0  , 174.4  , -640.0  , -90.0  , 338.4  , -1296.0  , -274.0  , -1.6  , -716.0  , -494.0  , 178.4  , -424.0  , 542.0  , -721.6  , -356.0  , 1902.0  , -1297.6  , 112.0  , 2646.0  , -1669.6  , 184.0  , 1602.0  , -1581.6  , -60.0  , 542.0  , -1277.6  , -320.0  , -74.0 );
                        kernels[33] = compute_kernel(x,   1462.4  , 10996.0  , 8902.0  , 1158.4  , 11324.0  , 15686.0  , -1625.6  , 14892.0  , 16433.0  , -2237.6  , 17952.0  , 13538.0  , -521.6  , 16464.0  , 2530.0  , 1562.4  , 9296.0  , -5262.0  , 2018.4  , 3820.0  , -6702.0  , 1642.4  , -1368.0  , -7002.0  , 2282.4  , -3696.0  , -2506.0  , -1465.6  , -672.0  , 434.0  , -1317.6  , -1088.0  , -2858.0  , 422.4  , -1600.0  , -8622.0  , 1274.4  , -5460.0  , -14982.0  , 1354.4  , -10024.0  , -18578.0  , -725.6  , -12424.0  , -18678.0  , -265.6  , -12988.0  , -20042.0  , -1229.6  , -12820.0  , -18170.0  , -2877.6  , -10420.0  , -14722.0  , -3545.6  , -10440.0  , -12622.0  , -4181.6  , -10240.0  , -11074.0  , -4253.6  , -10968.0  , -10934.0  , -4137.6  , -11516.0  , -10498.0  , -4089.6  , -11576.0  , -9962.0  , -4417.6  , -11144.0  , -8894.0  , -4229.6  , -10620.0  , -8018.0  , -3809.6  , -10776.0  , -8474.0  , -3589.6  , -9976.0  , -8166.0  , -3157.6  , -8476.0  , -7318.0  , -2757.6  , -7872.0  , -6098.0  , -2817.6  , -5464.0  , -5170.0 );
                        kernels[34] = compute_kernel(x,   -2785.6  , 12744.0  , 8678.0  , -3377.6  , 14980.0  , 11110.0  , -2869.6  , 16544.0  , 13610.0  , -2521.6  , 17664.0  , 14610.0  , -2193.6  , 18128.0  , 14618.0  , -1929.6  , 18260.0  , 13726.0  , -989.6  , 17348.0  , 11386.0  , -361.6  , 16424.0  , 9154.0  , 194.4  , 14884.0  , 6398.0  , 722.4  , 13200.0  , 3498.0  , 2038.4  , 11304.0  , 42.0  , 1514.4  , 9312.0  , -3418.0  , 1690.4  , 7288.0  , -5702.0  , 1698.4  , 5560.0  , -7610.0  , 1046.4  , 5056.0  , -9626.0  , 178.4  , 2880.0  , -10870.0  , -449.6  , 1812.0  , -11722.0  , -741.6  , 100.0  , -13014.0  , -1945.6  , -748.0  , -13642.0  , -2141.6  , -2032.0  , -14046.0  , -2613.6  , -2432.0  , -14846.0  , -3177.6  , -3420.0  , -14350.0  , -3365.6  , -3576.0  , -13934.0  , -3593.6  , -3716.0  , -13426.0  , -3169.6  , -3532.0  , -12766.0  , -3121.6  , -3760.0  , -11654.0  , -2633.6  , -3352.0  , -10642.0  , -2833.6  , -2936.0  , -9734.0  , -2877.6  , -2376.0  , -8762.0  , -2829.6  , -1996.0  , -8122.0 );
                        kernels[35] = compute_kernel(x,   1234.4  , 11164.0  , 11258.0  , -1113.6  , 13656.0  , 15946.0  , -4313.6  , 14304.0  , 16433.0  , -4753.6  , 15380.0  , 16210.0  , -3229.6  , 18476.0  , 10202.0  , -849.6  , 15252.0  , 2282.0  , 1150.4  , 9964.0  , -3994.0  , 1650.4  , 4300.0  , -5586.0  , 1118.4  , 680.0  , -5174.0  , 578.4  , -108.0  , -5758.0  , 530.4  , -2284.0  , -9674.0  , 842.4  , -4108.0  , -12282.0  , 1190.4  , -7028.0  , -14894.0  , 310.4  , -10072.0  , -17150.0  , -557.6  , -12048.0  , -18106.0  , -1009.6  , -11968.0  , -17838.0  , -2569.6  , -11216.0  , -15114.0  , -3737.6  , -10260.0  , -12950.0  , -4125.6  , -10228.0  , -12386.0  , -3677.6  , -9568.0  , -11486.0  , -3565.6  , -8752.0  , -9134.0  , -4137.6  , -8440.0  , -7078.0  , -4221.6  , -8476.0  , -6194.0  , -3141.6  , -8320.0  , -5966.0  , -2669.6  , -8732.0  , -6426.0  , -2393.6  , -9428.0  , -7498.0  , -2225.6  , -8760.0  , -8750.0  , -2693.6  , -8676.0  , -9374.0  , -2777.6  , -7228.0  , -8710.0  , -2601.6  , -5020.0  , -7938.0 );
                        kernels[36] = compute_kernel(x,   -2093.6  , -5508.0  , -16118.0  , -1193.6  , -6820.0  , -17190.0  , -781.6  , -8124.0  , -18518.0  , -825.6  , -9096.0  , -19094.0  , -349.6  , -9580.0  , -19014.0  , -697.6  , -9620.0  , -17934.0  , -1181.6  , -9032.0  , -16210.0  , -1237.6  , -8280.0  , -14042.0  , -1329.6  , -7624.0  , -11886.0  , -1369.6  , -6588.0  , -10114.0  , -1281.6  , -5752.0  , -8590.0  , -1553.6  , -4476.0  , -6790.0  , -1241.6  , -3284.0  , -4262.0  , -1641.6  , -1544.0  , -2646.0  , -1473.6  , -168.0  , -1006.0  , -1129.6  , 644.0  , 198.0  , -857.6  , 1240.0  , 1786.0  , -1057.6  , 2100.0  , 2794.0  , -1281.6  , 2220.0  , 3186.0  , -1465.6  , 2184.0  , 3182.0  , -1329.6  , 1988.0  , 2234.0  , -1477.6  , 1800.0  , 1330.0  , -1277.6  , 1712.0  , 770.0  , -1421.6  , 1852.0  , 794.0  , -1469.6  , 2084.0  , 1142.0  , -1789.6  , 2044.0  , 1790.0  , -1869.6  , 2140.0  , 2270.0  , -2001.6  , 2676.0  , 2570.0  , -2037.6  , 2612.0  , 2602.0  , -2173.6  , 2752.0  , 2494.0 );
                        kernels[37] = compute_kernel(x,   -1345.6  , 14896.0  , 5122.0  , -1777.6  , 15032.0  , 6434.0  , -2217.6  , 15716.0  , 6862.0  , -941.6  , 16160.0  , 7626.0  , 90.4  , 16664.0  , 10118.0  , 874.4  , 17448.0  , 11542.0  , 2034.4  , 17816.0  , 12518.0  , 2134.4  , 17836.0  , 10190.0  , 634.4  , 17664.0  , 6994.0  , 442.4  , 16428.0  , 5918.0  , 958.4  , 16004.0  , 5466.0  , 662.4  , 15300.0  , 3942.0  , 2630.4  , 15100.0  , 4046.0  , 2150.4  , 13080.0  , 2298.0  , 394.4  , 11192.0  , -3754.0  , 718.4  , 6416.0  , -7106.0  , 1206.4  , 1160.0  , -10646.0  , -1101.6  , -2512.0  , -11994.0  , -1493.6  , -4724.0  , -11854.0  , -1697.6  , -5724.0  , -14742.0  , -1705.6  , -7364.0  , -16974.0  , -1969.6  , -9384.0  , -18466.0  , -2417.6  , -10332.0  , -19638.0  , -2581.6  , -10772.0  , -19818.0  , -2813.6  , -10272.0  , -18886.0  , -3421.6  , -9748.0  , -18350.0  , -3229.6  , -9248.0  , -17194.0  , -3061.6  , -8080.0  , -15622.0  , -3005.6  , -7032.0  , -12342.0  , -2769.6  , -6136.0  , -9638.0 );
                        kernels[38] = compute_kernel(x,   -1805.6  , -2540.0  , -16470.0  , -1809.6  , -3960.0  , -18462.0  , -2645.6  , -5028.0  , -18446.0  , -3117.6  , -5060.0  , -18018.0  , -2625.6  , -5356.0  , -17914.0  , -1745.6  , -4800.0  , -17018.0  , -1325.6  , -3932.0  , -13526.0  , -2433.6  , -4100.0  , -11398.0  , -3121.6  , -4376.0  , -10122.0  , -3289.6  , -4916.0  , -9782.0  , -3053.6  , -5212.0  , -9530.0  , -2693.6  , -5352.0  , -9078.0  , -2177.6  , -5376.0  , -8122.0  , -885.6  , -4592.0  , -6714.0  , -605.6  , -3088.0  , -4022.0  , -441.6  , -1096.0  , -1854.0  , 242.4  , 580.0  , 822.0  , 178.4  , 920.0  , 2526.0  , 442.4  , 1772.0  , 3622.0  , 682.4  , 2184.0  , 3630.0  , 658.4  , 2812.0  , 3270.0  , 662.4  , 2740.0  , 2962.0  , 234.4  , 2644.0  , 2614.0  , -457.6  , 3256.0  , 1794.0  , -1069.6  , 3856.0  , 1154.0  , -1185.6  , 5012.0  , 1034.0  , -1069.6  , 5656.0  , 1906.0  , -777.6  , 6472.0  , 2918.0  , -449.6  , 6708.0  , 4318.0  , -553.6  , 7080.0  , 4698.0 );
                        kernels[39] = compute_kernel(x,   -709.6  , 9340.0  , 12814.0  , -2229.6  , 6404.0  , 10706.0  , -1137.6  , 5284.0  , 7070.0  , 150.4  , 4756.0  , 3758.0  , 838.4  , 3804.0  , 2550.0  , 342.4  , 4224.0  , 2074.0  , -117.6  , 4820.0  , 1774.0  , 130.4  , 5916.0  , 2178.0  , 1030.4  , 7144.0  , 3886.0  , 1214.4  , 7424.0  , 4618.0  , 366.4  , 7592.0  , 4826.0  , -209.6  , 7120.0  , 4378.0  , -681.6  , 6860.0  , 3494.0  , -1013.6  , 6516.0  , 2830.0  , -757.6  , 6452.0  , 1566.0  , -473.6  , 6096.0  , 750.0  , -645.6  , 5572.0  , 274.0  , -1105.6  , 5524.0  , -146.0  , -1621.6  , 5364.0  , -830.0  , -1881.6  , 5076.0  , -1510.0  , -2153.6  , 5132.0  , -2042.0  , -957.6  , 5484.0  , -2198.0  , 58.4  , 5784.0  , -1458.0  , 54.4  , 6504.0  , -814.0  , -389.6  , 6832.0  , 362.0  , -733.6  , 7060.0  , 238.0  , -841.6  , 7068.0  , -650.0  , -881.6  , 7216.0  , -1286.0  , -785.6  , 7352.0  , -2458.0  , -453.6  , 7596.0  , -3146.0 );
                        kernels[40] = compute_kernel(x,   8358.4  , 8396.0  , 8326.0  , 7686.4  , 8296.0  , 8282.0  , 4794.4  , 8496.0  , 4994.0  , 2662.4  , 6560.0  , 2166.0  , 430.4  , 5788.0  , 2350.0  , -973.6  , 7544.0  , 2874.0  , -961.6  , 7588.0  , 4142.0  , 250.4  , 8388.0  , 3882.0  , 1642.4  , 8576.0  , 4522.0  , 2098.4  , 9288.0  , 5302.0  , 1970.4  , 8836.0  , 5878.0  , 1994.4  , 8700.0  , 4922.0  , 1366.4  , 8968.0  , 3854.0  , 1490.4  , 8536.0  , 2722.0  , 1554.4  , 8468.0  , 1550.0  , 618.4  , 8112.0  , 838.0  , 850.4  , 7740.0  , -70.0  , 1338.4  , 7112.0  , -466.0  , 1766.4  , 7344.0  , -714.0  , 1574.4  , 6416.0  , -554.0  , 1446.4  , 7280.0  , -354.0  , 522.4  , 7236.0  , 394.0  , -1193.6  , 6716.0  , 1334.0  , -1549.6  , 6944.0  , 1502.0  , -1593.6  , 7572.0  , 878.0  , -661.6  , 7412.0  , -78.0  , -281.6  , 7276.0  , -894.0  , 166.4  , 7200.0  , -1762.0  , 586.4  , 7248.0  , -2258.0  , 378.4  , 7400.0  , -2046.0 );  
                        kernels[41] = compute_kernel(x,   -853.6  , -10540.0  , -12694.0  , 310.4  , -9904.0  , -11186.0  , 286.4  , -8328.0  , -8238.0  , 874.4  , -5828.0  , -5766.0  , 714.4  , -3656.0  , -1718.0  , -225.6  , -1884.0  , 290.0  , -825.6  , -1320.0  , -1138.0  , -393.6  , -1704.0  , -2302.0  , 994.4  , -1504.0  , -1350.0  , 3050.4  , -272.0  , 1078.0  , 3822.4  , 1144.0  , 2610.0  , 3542.4  , 1736.0  , 2354.0  , 2122.4  , 2024.0  , 1110.0  , 342.4  , 1004.0  , -166.0  , -993.6  , 1100.0  , -1914.0  , -425.6  , 2904.0  , -1702.0  , 2950.4  , 4860.0  , 2322.0  , 3850.4  , 7072.0  , 6546.0  , 2290.4  , 7636.0  , 7810.0  , 1002.4  , 7656.0  , 6862.0  , 982.4  , 6824.0  , 5486.0  , 2094.4  , 6144.0  , 3638.0  , 3078.4  , 6276.0  , 2486.0  , 3978.4  , 6212.0  , 2370.0  , 3042.4  , 6572.0  , 2230.0  , 1846.4  , 6724.0  , 1502.0  , 1558.4  , 5216.0  , 682.0  , 1438.4  , 6628.0  , 1170.0  , 1566.4  , 6116.0  , 122.0  , 1518.4  , 6728.0  , -122.0 );
                        kernels[42] = compute_kernel(x,   522.4  , 7424.0  , 6246.0  , 3686.4  , 8416.0  , 7670.0  , 942.4  , 9280.0  , 5878.0  , 1174.4  , 9056.0  , 5430.0  , 438.4  , 7176.0  , 3434.0  , 710.4  , 6504.0  , 2270.0  , 858.4  , 6284.0  , 1190.0  , 1286.4  , 6340.0  , 870.0  , 1914.4  , 6596.0  , 586.0  , 2118.4  , 6396.0  , 1094.0  , 2026.4  , 6804.0  , 1410.0  , 1954.4  , 6272.0  , 1170.0  , 1322.4  , 6424.0  , 910.0  , 1026.4  , 6372.0  , 518.0  , 594.4  , 6312.0  , 266.0  , 526.4  , 6192.0  , -354.0  , 310.4  , 6388.0  , -554.0  , 98.4  , 6264.0  , -894.0  , 482.4  , 6536.0  , -1002.0  , 814.4  , 6160.0  , -1010.0  , 730.4  , 6596.0  , -762.0  , 1198.4  , 7092.0  , -574.0  , 694.4  , 7096.0  , -458.0  , 586.4  , 7144.0  , -154.0  , 526.4  , 6768.0  , -446.0  , 98.4  , 6860.0  , -518.0  , 182.4  , 6580.0  , -294.0  , 630.4  , 6636.0  , -682.0  , 574.4  , 6828.0  , -690.0  , 662.4  , 6708.0  , -726.0 );
                        kernels[43] = compute_kernel(x,   2498.4  , 13856.0  , 5306.0  , 3294.4  , 13108.0  , 6874.0  , 3150.4  , 14424.0  , 8498.0  , 2530.4  , 15076.0  , 9006.0  , 2474.4  , 15816.0  , 8686.0  , 2870.4  , 15240.0  , 8418.0  , 3078.4  , 14000.0  , 7010.0  , 3358.4  , 12572.0  , 5090.0  , 3790.4  , 10884.0  , 2554.0  , 4098.4  , 9320.0  , -266.0  , 3454.4  , 8188.0  , -2626.0  , 2430.4  , 6924.0  , -3622.0  , 1658.4  , 6152.0  , -4178.0  , 442.4  , 5348.0  , -3274.0  , -265.6  , 4940.0  , -2606.0  , -373.6  , 5244.0  , -2130.0  , 850.4  , 5408.0  , -1230.0  , 706.4  , 5276.0  , -1074.0  , 662.4  , 4860.0  , -2382.0  , 666.4  , 4368.0  , -3882.0  , 286.4  , 3252.0  , -6518.0  , -257.6  , 1984.0  , -9122.0  , -917.6  , 544.0  , -11010.0  , -1513.6  , -688.0  , -12294.0  , -1789.6  , -1460.0  , -12930.0  , -2453.6  , -2072.0  , -13298.0  , -2645.6  , -2392.0  , -13314.0  , -3153.6  , -2588.0  , -13322.0  , -3445.6  , -2652.0  , -12650.0  , -3409.6  , -2664.0  , -11798.0 );
                        kernels[44] = compute_kernel(x,   2058.4  , 10276.0  , 8446.0  , 2574.4  , 10640.0  , 8882.0  , 3706.4  , 12716.0  , 8354.0  , 4290.4  , 11992.0  , 9170.0  , 4218.4  , 11664.0  , 9562.0  , 3434.4  , 10992.0  , 8850.0  , 2774.4  , 10284.0  , 7574.0  , 2578.4  , 9556.0  , 5854.0  , 2946.4  , 7848.0  , 4562.0  , 2262.4  , 8132.0  , 3918.0  , 2590.4  , 7260.0  , 2714.0  , 2010.4  , 6844.0  , 1054.0  , 2394.4  , 5880.0  , -2.0  , 2150.4  , 5060.0  , -1086.0  , 2134.4  , 3312.0  , -1678.0  , 1438.4  , 3168.0  , -3722.0  , -197.6  , 1408.0  , -3974.0  , -873.6  , -112.0  , -5670.0  , -2029.6  , -1208.0  , -7498.0  , -2993.6  , -2704.0  , -8914.0  , -3661.6  , -4528.0  , -10314.0  , -3981.6  , -6064.0  , -11742.0  , -4713.6  , -6844.0  , -12746.0  , -4829.6  , -7644.0  , -13758.0  , -5481.6  , -8516.0  , -14498.0  , -5761.6  , -9320.0  , -14714.0  , -5845.6  , -9792.0  , -15182.0  , -5793.6  , -10128.0  , -15578.0  , -5913.6  , -10064.0  , -15714.0  , -6053.6  , -10152.0  , -15574.0 );
                        kernels[45] = compute_kernel(x,   -4677.6  , -8904.0  , -13490.0  , -4165.6  , -7488.0  , -12322.0  , -2685.6  , -6812.0  , -10878.0  , -2125.6  , -5136.0  , -9718.0  , -1573.6  , -3688.0  , -7358.0  , -945.6  , -2316.0  , -4482.0  , 6.4  , -392.0  , -1830.0  , 1046.4  , 1072.0  , 654.0  , 2294.4  , 2588.0  , 2182.0  , 3442.4  , 3180.0  , 3954.0  , 3450.4  , 3088.0  , 3926.0  , 2614.4  , 2504.0  , 3506.0  , 2250.4  , 1824.0  , 3270.0  , 1750.4  , 1828.0  , 3010.0  , 2066.4  , 2716.0  , 3206.0  , 2654.4  , 3108.0  , 3970.0  , 2806.4  , 3652.0  , 4470.0  , 3010.4  , 4192.0  , 5258.0  , 2858.4  , 4452.0  , 5806.0  , 2530.4  , 4328.0  , 5062.0  , 1370.4  , 3756.0  , 4070.0  , 650.4  , 3304.0  , 2622.0  , 254.4  , 3124.0  , 1306.0  , 358.4  , 3048.0  , 594.0  , 602.4  , 3436.0  , 266.0  , 1410.4  , 4480.0  , 810.0  , 2802.4  , 5060.0  , 1962.0  , 2310.4  , 5156.0  , 2694.0  , 982.4  , 5284.0  , 2714.0  , 430.4  , 5172.0  , 2090.0 );
                        decisions[0] = -3.20100909503
                        + kernels[0] * 1.24e-09
                        + kernels[1] * 5.99e-10
                        + kernels[2] * 1.768e-09
                        + kernels[3] * 2.933e-09
                        + kernels[4] * 1.49e-10
                        + kernels[5] * 3.24e-10
                        + kernels[7] * -2.08e-10
                        + kernels[9] * -2.6e-11
                        + kernels[11] * -4.139e-09
                        + kernels[16] * -2.635e-09
                        + kernels[17] * -5e-12
                        ;
                        decisions[1] = -1.225222435211
                        + kernels[0] * 4.3e-10
                        + kernels[1] * 7.2e-11
                        + kernels[2] * 1.403e-09
                        + kernels[4] * 6.5e-11
                        + kernels[20] * -7.4e-11
                        + kernels[23] * -6.6e-11
                        + kernels[24] * -8.4e-11
                        + kernels[25] * -3e-12
                        + kernels[26] * -8.42e-10
                        + kernels[27] * -5.16e-10
                        + kernels[28] * -3.86e-10
                        ;
                        decisions[2] = -2.114112687923
                        + kernels[0] * 7.38e-10
                        + kernels[2] * 2.229e-09
                        + kernels[3] * 1.311e-09
                        + kernels[6] * 2.67e-10
                        + kernels[37] * -6.4e-11
                        + kernels[38] * -3.84e-10
                        + kernels[40] * -3.63e-10
                        + kernels[42] * -2.984e-09
                        + kernels[43] * -7.51e-10
                        ;
                        decisions[3] = -1.149072424618
                        + kernels[9] * 7.439e-09
                        + kernels[10] * 4.83e-10
                        + kernels[11] * 2.93e-09
                        + kernels[25] * -2.222e-09
                        + kernels[26] * -2.334e-09
                        + kernels[27] * -4.186e-09
                        + kernels[28] * -6.94e-10
                        + kernels[29] * -1.415e-09
                        ;
                        decisions[4] = -2.740951792799
                        + kernels[8] * 8.64e-10
                        + kernels[9] * 1.8404e-08
                        + kernels[12] * 3.25e-09
                        + kernels[13] * 8.81e-10
                        + kernels[14] * 3.578e-09
                        + kernels[15] * 2.085e-09
                        + kernels[18] * 8.92e-10
                        + kernels[31] * -2.4e-11
                        + kernels[34] * -3.441e-09
                        + kernels[38] * -5.088e-09
                        + kernels[39] * -4.944e-09
                        + kernels[41] * -2.72e-10
                        + kernels[42] * -1.3542e-08
                        + kernels[45] * -2.644e-09
                        ;
                        decisions[5] = -0.070938753193
                        + kernels[19] * 8.276e-09
                        + kernels[20] * 5.138e-09
                        + kernels[21] * 2.079e-09
                        + kernels[22] * 4.25e-10
                        + kernels[25] * 8.42e-10
                        + kernels[26] * 2.069e-09
                        + kernels[27] * 4.796e-09
                        + kernels[30] * -5.99e-10
                        + kernels[32] * -5.488e-09
                        + kernels[33] * -9.11e-10
                        + kernels[35] * -1.724e-09
                        + kernels[36] * -1.136e-09
                        + kernels[42] * -7.709e-09
                        + kernels[44] * -1.655e-09
                        + kernels[45] * -4.404e-09
                        ;
                        votes[decisions[0] > 0 ? 0 : 1] += 1;
                        votes[decisions[1] > 0 ? 0 : 2] += 1;
                        votes[decisions[2] > 0 ? 0 : 3] += 1;
                        votes[decisions[3] > 0 ? 1 : 2] += 1;
                        votes[decisions[4] > 0 ? 1 : 3] += 1;
                        votes[decisions[5] > 0 ? 2 : 3] += 1;
                        int val = votes[0];
                        int idx = 0;

                        for (int i = 1; i < 4; i++) {
                            if (votes[i] > val) {
                                val = votes[i];
                                idx = i;
                            }
                        }

                        return idx;
                    }

                    /**
                    * Convert class idx to readable name
                    */
                    const char* predictLabel(float *x) {
                        switch (predict(x)) {
                            case 0:
                            return "down";
                            case 1:
                            return "left";
                            case 2:
                            return "right";
                            case 3:
                            return "up";
                            default:
                            return "Houston we have a problem";
                        }
                    }

                protected:
                    /**
                    * Compute kernel between feature vector and support vector.
                    * Kernel type: linear
                    */
                    float compute_kernel(float *x, ...) {
                        va_list w;
                        va_start(w, 90);
                        float kernel = 0.0;

                        for (uint16_t i = 0; i < 90; i++) {
                            kernel += x[i] * va_arg(w, double);
                        }

                        return kernel;
                    }
                };
            }
        }
    }